<?xml version="1.0"?>
<opencv_storage>
<cascade>
  <stageType>BOOST</stageType>
  <featureType>HAAR</featureType>
  <height>20</height>
  <width>20</width>
  <stageParams>
    <boostType>GAB</boostType>
    <minHitRate>9.9500000476837158e-01</minHitRate>
    <maxFalseAlarm>5.0000000000000000e-01</maxFalseAlarm>
    <weightTrimRate>9.4999999999999996e-01</weightTrimRate>
    <maxDepth>1</maxDepth>
    <maxWeakCount>100</maxWeakCount></stageParams>
  <featureParams>
    <maxCatCount>0</maxCatCount>
    <featSize>1</featSize>
    <mode>BASIC</mode></featureParams>
  <stageNum>7</stageNum>
  <stages>
    <!-- stage 0 -->
    <_>
      <maxWeakCount>2</maxWeakCount>
      <stageThreshold>-2.0348170399665833e-01</stageThreshold>
      <weakClassifiers>
        <_>
          <internalNodes>
            0 -1 8 2.2359788417816162e-02</internalNodes>
          <leafValues>
            -9.6256685256958008e-01 8.2991802692413330e-01</leafValues></_>
        <_>
          <internalNodes>
            0 -1 13 3.1002886593341827e-02</internalNodes>
          <leafValues>
            -8.5704153776168823e-01 7.5908511877059937e-01</leafValues></_></weakClassifiers></_>
    <!-- stage 1 -->
    <_>
      <maxWeakCount>1</maxWeakCount>
      <stageThreshold>6.8559360504150391e-01</stageThreshold>
      <weakClassifiers>
        <_>
          <internalNodes>
            0 -1 4 1.4168205671012402e-03</internalNodes>
          <leafValues>
            -9.8594021797180176e-01 6.8559360504150391e-01</leafValues></_></weakClassifiers></_>
    <!-- stage 2 -->
    <_>
      <maxWeakCount>2</maxWeakCount>
      <stageThreshold>-1.4512182772159576e-01</stageThreshold>
      <weakClassifiers>
        <_>
          <internalNodes>
            0 -1 5 1.9022427499294281e-02</internalNodes>
          <leafValues>
            -9.2307692766189575e-01 7.1098268032073975e-01</leafValues></_>
        <_>
          <internalNodes>
            0 -1 2 -1.1675789952278137e-02</internalNodes>
          <leafValues>
            7.7795511484146118e-01 -5.5450910329818726e-01</leafValues></_></weakClassifiers></_>
    <!-- stage 3 -->
    <_>
      <maxWeakCount>5</maxWeakCount>
      <stageThreshold>-1.2814055383205414e-01</stageThreshold>
      <weakClassifiers>
        <_>
          <internalNodes>
            0 -1 16 3.4432001411914825e-02</internalNodes>
          <leafValues>
            -8.9601385593414307e-01 6.6745173931121826e-01</leafValues></_>
        <_>
          <internalNodes>
            0 -1 0 7.8008724376559258e-03</internalNodes>
          <leafValues>
            -6.5904062986373901e-01 7.2541391849517822e-01</leafValues></_>
        <_>
          <internalNodes>
            0 -1 15 2.2875651484355330e-04</internalNodes>
          <leafValues>
            -9.5106571912765503e-01 3.8945940136909485e-01</leafValues></_>
        <_>
          <internalNodes>
            0 -1 6 -4.5796334743499756e-03</internalNodes>
          <leafValues>
            -9.8776566982269287e-01 3.2491052150726318e-01</leafValues></_>
        <_>
          <internalNodes>
            0 -1 17 -1.5368198975920677e-02</internalNodes>
          <leafValues>
            7.1254402399063110e-01 -5.4905545711517334e-01</leafValues></_></weakClassifiers></_>
    <!-- stage 4 -->
    <_>
      <maxWeakCount>3</maxWeakCount>
      <stageThreshold>6.5099477767944336e-02</stageThreshold>
      <weakClassifiers>
        <_>
          <internalNodes>
            0 -1 14 1.4621452428400517e-03</internalNodes>
          <leafValues>
            -9.1860467195510864e-01 6.2912088632583618e-01</leafValues></_>
        <_>
          <internalNodes>
            0 -1 9 2.1860324777662754e-03</internalNodes>
          <leafValues>
            -9.8962575197219849e-01 3.8225042819976807e-01</leafValues></_>
        <_>
          <internalNodes>
            0 -1 1 -3.3539451658725739e-02</internalNodes>
          <leafValues>
            6.0145372152328491e-01 -5.5682188272476196e-01</leafValues></_></weakClassifiers></_>
    <!-- stage 5 -->
    <_>
      <maxWeakCount>4</maxWeakCount>
      <stageThreshold>-5.2496856451034546e-01</stageThreshold>
      <weakClassifiers>
        <_>
          <internalNodes>
            0 -1 11 1.3129573781043291e-03</internalNodes>
          <leafValues>
            -9.3852460384368896e-01 6.1392402648925781e-01</leafValues></_>
        <_>
          <internalNodes>
            0 -1 12 8.4233644884079695e-04</internalNodes>
          <leafValues>
            3.8738003373146057e-01 -9.2109638452529907e-01</leafValues></_>
        <_>
          <internalNodes>
            0 -1 7 -2.1868916228413582e-03</internalNodes>
          <leafValues>
            2.7724453806877136e-01 -9.4714456796646118e-01</leafValues></_>
        <_>
          <internalNodes>
            0 -1 3 1.0548453778028488e-02</internalNodes>
          <leafValues>
            -4.9504080414772034e-01 7.0705610513687134e-01</leafValues></_></weakClassifiers></_>
    <!-- stage 6 -->
    <_>
      <maxWeakCount>1</maxWeakCount>
      <stageThreshold>6.0142982006072998e-01</stageThreshold>
      <weakClassifiers>
        <_>
          <internalNodes>
            0 -1 10 3.8859047926962376e-03</internalNodes>
          <leafValues>
            6.0142982006072998e-01 -9.6536797285079956e-01</leafValues></_></weakClassifiers></_></stages>
  <features>
    <_>
      <rects>
        <_>
          0 5 2 11 -1.</_>
        <_>
          1 5 1 11 2.</_></rects>
      <tilted>0</tilted></_>
    <_>
      <rects>
        <_>
          2 16 13 4 -1.</_>
        <_>
          2 18 13 2 2.</_></rects>
      <tilted>0</tilted></_>
    <_>
      <rects>
        <_>
          3 18 13 2 -1.</_>
        <_>
          3 19 13 1 2.</_></rects>
      <tilted>0</tilted></_>
    <_>
      <rects>
        <_>
          4 0 13 2 -1.</_>
        <_>
          4 1 13 1 2.</_></rects>
      <tilted>0</tilted></_>
    <_>
      <rects>
        <_>
          4 10 3 4 -1.</_>
        <_>
          4 12 3 2 2.</_></rects>
      <tilted>0</tilted></_>
    <_>
      <rects>
        <_>
          5 12 12 2 -1.</_>
        <_>
          11 12 6 2 2.</_></rects>
      <tilted>0</tilted></_>
    <_>
      <rects>
        <_>
          6 13 9 1 -1.</_>
        <_>
          9 13 3 1 3.</_></rects>
      <tilted>0</tilted></_>
    <_>
      <rects>
        <_>
          7 7 6 3 -1.</_>
        <_>
          9 7 2 3 3.</_></rects>
      <tilted>0</tilted></_>
    <_>
      <rects>
        <_>
          7 9 8 3 -1.</_>
        <_>
          11 9 4 3 2.</_></rects>
      <tilted>0</tilted></_>
    <_>
      <rects>
        <_>
          8 7 1 10 -1.</_>
        <_>
          8 12 1 5 2.</_></rects>
      <tilted>0</tilted></_>
    <_>
      <rects>
        <_>
          8 12 6 4 -1.</_>
        <_>
          10 12 2 4 3.</_></rects>
      <tilted>0</tilted></_>
    <_>
      <rects>
        <_>
          9 11 2 5 -1.</_>
        <_>
          10 11 1 5 2.</_></rects>
      <tilted>0</tilted></_>
    <_>
      <rects>
        <_>
          9 13 3 4 -1.</_>
        <_>
          10 13 1 4 3.</_></rects>
      <tilted>0</tilted></_>
    <_>
      <rects>
        <_>
          10 4 8 6 -1.</_>
        <_>
          10 7 8 3 2.</_></rects>
      <tilted>0</tilted></_>
    <_>
      <rects>
        <_>
          11 11 4 1 -1.</_>
        <_>
          13 11 2 1 2.</_></rects>
      <tilted>0</tilted></_>
    <_>
      <rects>
        <_>
          11 13 2 1 -1.</_>
        <_>
          12 13 1 1 2.</_></rects>
      <tilted>0</tilted></_>
    <_>
      <rects>
        <_>
          12 4 6 12 -1.</_>
        <_>
          12 8 6 4 3.</_></rects>
      <tilted>0</tilted></_>
    <_>
      <rects>
        <_>
          18 6 2 9 -1.</_>
        <_>
          19 6 1 9 2.</_></rects>
      <tilted>0</tilted></_></features></cascade>
</opencv_storage>
